digraph Tree {
node [shape=box] ;
0 [label="X[0] <= 3.5\ngini = 0.3339\nsamples = 428\nvalue = [51, 33, 344]"] ;
1 [label="X[0] <= 2.5\ngini = 0.477\nsamples = 84\nvalue = [51, 33, 0]"] ;
0 -> 1 [labeldistance=2.5, labelangle=45, headlabel="True"] ;
2 [label="gini = 0.0\nsamples = 51\nvalue = [51, 0, 0]"] ;
1 -> 2 ;
3 [label="gini = 0.0\nsamples = 33\nvalue = [0, 33, 0]"] ;
1 -> 3 ;
4 [label="gini = 0.0\nsamples = 344\nvalue = [0, 0, 344]"] ;
0 -> 4 [labeldistance=2.5, labelangle=-45, headlabel="False"] ;
}